{"anl4_afv4_eps_mean": [10.924481391906738, -0.09541865438222885], "anl4_afv4_eps_number": [9.849614143371582, 0.15449705719947815], "anl4_afv4_median_eps": [10.92812728881836, -0.1127147525548935], "anl4_dts_ptp": [3.9995944499969482, 2.747893810272217], "dividend": [10.310907363891602, -3.309359312057495], "dividend_max_guidance_quarterly": [10.268808364868164, -3.239583969116211], "dividend_max_guidance_value": [10.309903144836426, -3.284360647201538], "dividend_min_guidance_quarterly": [10.307476043701172, -3.287010908126831], "dividend_min_guidance_value": [10.261308670043945, -3.222665786743164], "earnings_certainty_rank_derivative": [6.978819847106934, 2.6661746501922607], "earnings_per_share_average": [10.836992263793945, -0.13338623940944672], "earnings_per_share_estimate_count": [9.65746021270752, 0.6175761818885803], "earnings_per_share_maximum": [10.904850006103516, -0.17397013306617737], "earnings_per_share_median_value": [10.879717826843262, -0.1635732352733612], "earnings_per_share_nongaap_value": [11.582501411437988, -0.20235328376293182], "earnings_per_share_reported_value": [11.75363826751709, -0.3733278512954712], "earnings_per_share_standard_deviation": [11.809029579162598, -0.4235524833202362], "ebit": [9.516539573669434, 0.02342713437974453], "ebit_reported_value": [10.448789596557617, 0.32645419239997864], "ebitda": [9.333657264709473, 0.013143109157681465], "ebitda_reported_value": [10.236810684204102, 0.3516964912414551], "employee": [6.157822608947754, 0.408803254365921], "enterprise_value": [7.4851579666137695, 2.910372495651245], "eps": [11.78781795501709, -0.40254902839660645], "eps_guidance_value_quarterly": [6.035727500915527, 2.141418695449829], "eps_max_guidance_quarterly": [6.028952598571777, 2.1649765968322754], "eps_min_guidance_quarterly": [6.020864009857178, 2.165173053741455], "equity": [4.846363067626953, 1.1256935596466064], "est_bookvalue_ps": [10.702031135559082, -0.4726726710796356], "est_capex": [4.620426654815674, 2.689342498779297], "est_cashflow_fin": [9.343371391296387, 0.7621298432350159], "est_cashflow_invst": [9.29376220703125, 1.1190515756607056], "est_cashflow_op": [9.740222930908203, 0.7155629992485046], "est_cashflow_ps": [10.821002960205078, -0.20010392367839813], "est_dividend_ps": [9.494050979614258, -0.5583170056343079], "fn_liab_fair_val_a": [7.547884941101074, -0.2893460690975189], "fn_liab_fair_val_l1_a": [6.966995716094971, -0.14393405616283417], "fn_liab_fair_val_l1_q": [6.858758449554443, -0.09917576611042023], "fn_liab_fair_val_l2_a": [7.544337272644043, -0.718177855014801], "fn_liab_fair_val_l2_q": [7.513077735900879, -0.6569610238075256], "fn_liab_fair_val_q": [7.5337910652160645, -0.2478724718093872], "fn_line_of_credit_facility_amount_out_a": [10.438904762268066, 6.282225131988525], "fn_line_of_credit_facility_amount_out_q": [10.347184181213379, 6.304553031921387], "fn_line_of_credit_facility_max_borrowing_capacity_a": [4.945340633392334, 0.1622265726327896], "fn_line_of_credit_facility_max_borrowing_capacity_q": [4.9711833000183105, 0.19318601489067078], "fn_mne_a": [6.38976526260376, -0.18268312513828278], "fn_new_shares_issued_a": [8.675110816955566, -0.10524801909923553], "fn_new_shares_options_a": [8.069398880004883, -0.9720547795295715], "fn_new_shares_options_q": [8.117603302001953, -0.8949923515319824], "fn_op_lease_min_pay_due_a": [3.705082416534424, -1.0645077228546143], "fn_op_lease_min_pay_due_after_5y_a": [3.6214120388031006, -1.1360336542129517], "fn_op_lease_min_pay_due_in_2y_a": [3.6752941608428955, -1.1177289485931396], "fn_op_lease_min_pay_due_in_3y_a": [3.6522059440612793, -1.0824636220932007], "fn_op_lease_min_pay_due_in_4y_a": [3.6327168941497803, -1.1297553777694702], "fn_op_lease_min_pay_due_in_5y_a": [3.6272289752960205, -1.133042573928833], "fn_op_lease_rent_exp_a": [3.802774667739868, -1.0029821395874023], "fn_oth_comp_fair_value_a": [6.236161231994629, 4.512969493865967], "fn_oth_comp_forfeitures_fair_value_a": [6.234146595001221, 4.592606067657471], "fn_oth_comp_grants_weighted_avg_grant_date_fair_value_a": [6.278879165649414, 4.557699203491211], "fn_oth_income_loss_available_for_sale_securities_adj_of_tax_a": [7.790232181549072, 2.4165868759155273], "fn_oth_income_loss_available_for_sale_securities_adj_of_tax_q": [8.062652587890625, 2.2958242893218994], "fn_oth_income_loss_derivatives_qualifying_as_hedges_of_tax_a": [8.281527519226074, 2.4865169525146484], "fn_oth_income_loss_derivatives_qualifying_as_hedges_of_tax_q": [8.278326988220215, 2.477555751800537], "fn_oth_income_loss_fx_transaction_and_tax_translation_adj_a": [9.999755859375, -0.727057933807373], "fn_oth_income_loss_fx_transaction_and_tax_translation_adj_q": [10.53065299987793, 0.33784517645835876], "fn_oth_income_loss_net_of_tax_a": [7.655374050140381, 2.478287935256958], "fn_oth_income_loss_net_of_tax_q": [10.443061828613281, 0.30008944869041443], "fn_payments_for_repurchase_of_common_stock_a": [10.348179817199707, -0.6329492926597595], "fn_payments_for_repurchase_of_common_stock_q": [11.084400177001953, -0.46817147731781006], "fn_payments_to_acquire_businesses_net_of_cash_acquired_a": [8.02485466003418, -0.2753233313560486], "fn_payments_to_acquire_businesses_net_of_cash_acquired_q": [7.231080055236816, -0.018564753234386444], "fn_ppne_gross_a": [6.383296966552734, -0.08654703944921494], "fn_prepaid_expense_a": [5.188522815704346, 0.38179415464401245], "fn_prepaid_expense_q": [5.259333610534668, 0.16593077778816223], "fn_proceeds_from_issuance_of_common_stock_a": [8.162264823913574, -0.5021539926528931], "fn_proceeds_from_issuance_of_common_stock_q": [5.2099456787109375, 0.5707917809486389], "fn_proceeds_from_issuance_of_debt_a": [4.6116414070129395, -0.7726636528968811], "fn_proceeds_from_issuance_of_debt_q": [9.125896453857422, 0.24008427560329437], "fn_proceeds_from_lt_debt_a": [4.782618522644043, -0.4943449795246124], "fnd6_cptnewqv1300_actq": [4.587371826171875, 0.9834439158439636], "fnd6_cptnewqv1300_apq": [6.434091091156006, 0.4513853192329407], "fnd6_cptnewqv1300_atq": [5.111692905426025, 0.6006639003753662], "fnd6_cptnewqv1300_ceqq": [4.8895087242126465, 1.1353845596313477], "fnd6_cptnewqv1300_dlttq": [5.007248401641846, -0.8445929288864136], "fnd6_cptnewqv1300_dpq": [5.703102111816406, -0.16540119051933289], "fnd6_cptnewqv1300_epsf12": [11.452254295349121, -0.7453821301460266], "fnd6_cptnewqv1300_epsfxq": [11.754980087280273, -0.4090016484260559], "fnd6_cptnewqv1300_epsx12": [11.467649459838867, -0.7638627290725708], "fnd6_cptnewqv1300_lctq": [4.8185601234436035, 0.5320111513137817], "fnd6_cptnewqv1300_ltq": [5.171335697174072, -0.2181585133075714], "fnd6_cptnewqv1300_nopiq": [7.90565299987793, -0.7953061461448669], "fnd6_cptnewqv1300_oeps12": [11.367733001708984, -0.7846297025680542], "fnd6_cptnewqv1300_oiadpq": [10.249608039855957, 0.19596053659915924], "fnd6_cptnewqv1300_oibdpq": [9.927889823913574, 0.21253618597984314], "fnd6_cptnewqv1300_opepsq": [11.650774955749512, -0.4841545522212982], "fnd6_cptnewqv1300_rectq": [6.650643348693848, 0.3810342848300934], "fnd6_cptnewqv1300_req": [10.379639625549316, -1.110169768333435], "fnd6_cptnewqv1300_saleq": [6.725954532623291, 0.8624368906021118], "fnd6_cptrank_gvkeymap": [7.938397407531738, 2.4191811084747314], "fnd6_cshpri": [3.2411277294158936, 2.719618082046509], "fnd6_cshr": [7.763156890869141, -0.7641484141349792], "fnd6_cshtr": [11.042718887329102, 2.45906138420105], "fnd6_cshtrq": [11.010162353515625, 2.5219805240631104], "fnd6_cstkcv": [7.956421375274658, -0.9180742502212524], "fnd6_cstkcvq": [7.969796657562256, -0.9246622920036316], "fnd6_currencya_curcd": [5.620906352996826, 3.030942916870117], "fnd6_currencyqv1300_curcd": [5.563043117523193, 3.030080556869507], "fnd6_dc": [11.528865814208984, 0.13769960403442383], "fnd6_dclo": [6.31099271774292, 5.0530195236206055], "fnd6_dcpstk": [10.614493370056152, -0.9959791898727417], "fnd6_dcvsr": [10.553871154785156, -1.097000002861023], "fnd6_dcvsub": [6.621798515319824, 4.990109443664551], "fnd6_dcvt": [10.501297950744629, -1.1026451587677002], "fnd6_dd": [9.272881507873535, -0.5045928359031677], "fnd6_dd1": [5.1824469566345215, -0.699141263961792], "fnd6_dd1q": [5.12684965133667, -0.5640524625778198], "fnd6_dd2": [5.1050591468811035, -1.590368628501892], "fnd6_dd3": [5.043694019317627, -1.4691202640533447], "fnd6_dd4": [4.964590072631836, -1.5332119464874268], "fnd6_dd5": [5.0158610343933105, -1.4576690196990967], "fnd6_dilavx": [10.330933570861816, -0.9255483746528625], "fnd6_dlcch": [7.922552585601807, 2.18935489654541], "fnd6_dltis": [5.0006232261657715, -1.3668581247329712], "fnd6_dlto": [4.996978759765625, -1.240121603012085], "fnd6_dltp": [4.928264141082764, -1.5508614778518677], "fnd6_dltr": [5.091811656951904, -1.2880743741989136], "fnd6_dm": [6.592496871948242, 5.081837177276611], "fnd6_dn": [5.337424278259277, -1.266300916671753], "fnd6_donr": [7.8978376388549805, 2.3675014972686768], "fnd6_dpvieb": [6.786214828491211, -0.15970563888549805], "fnd6_drc": [4.118985652923584, 1.4573707580566406], "fnd6_drlt": [9.677475929260254, -0.200785294175148], "fnd6_ds": [6.257913589477539, 4.866530895233154], "fnd6_dudd": [6.243182182312012, -0.09847535938024521], "fnd6_dvpa": [8.75144100189209, 1.8325344324111938], "fnd6_dxd2": [4.975520610809326, -1.5314537286758423], "fnd6_dxd3": [5.037723064422607, -1.5695891380310059], "fnd6_dxd4": [4.96775484085083, -1.4712674617767334], "fnd6_dxd5": [5.0188140869140625, -1.5085947513580322], "fnd6_ein": [9.797952651977539, -0.45049622654914856], "fnd6_esopct": [3.4298369884490967, 2.527202844619751], "fnd6_esopnr": [11.688522338867188, 0.20102491974830627], "fnd6_esopr": [6.92181396484375, -0.6807056069374084], "fnd6_esubc": [7.97869348526001, 2.2779574394226074], "fnd6_exre": [9.989364624023438, -0.6868869662284851], "fnd6_fatb": [7.252266883850098, -0.5557358860969543], "fnd6_fatc": [3.7162704467773438, 1.7111549377441406], "fnd6_fate": [6.694253921508789, -0.21166232228279114], "fnd6_fatl": [4.801191329956055, -0.3219115734100342], "fnd6_fatn": [6.29311990737915, 4.441605567932129], "fnd6_fato": [10.160687446594238, -0.9167033433914185], "fnd6_fatp": [7.340472221374512, -0.5727344751358032], "fnd6_fiao": [6.592067718505859, 1.0291972160339355], "fnd6_fic": [6.019803047180176, 2.537853956222534], "fnd6_fopo": [3.2538001537323, 2.390151023864746], "fnd6_fopox": [3.249138832092285, 2.4226436614990234], "fnd6_fyrc": [7.826865196228027, 2.2029294967651367], "fnd6_ibmii": [10.336491584777832, -0.8367720246315002], "fnd6_idesindq_curcd": [5.576877593994141, 3.04421067237854], "fnd6_idit": [4.49961519241333, 1.317318081855774], "fnd6_incorp": [5.341433048248291, 2.2021124362945557], "fnd6_intan": [6.019949436187744, -0.7612447738647461], "fnd6_intc": [6.452396392822266, 5.4358320236206055], "fnd6_intpn": [5.335334777832031, -1.086805820465088], "fnd6_invfg": [6.694752216339111, -1.5586605072021484], "fnd6_invo": [9.357051849365234, 1.055832028388977], "fnd6_invrm": [6.67822265625, -1.5776596069335938], "fnd6_invwip": [6.678299903869629, -1.5484378337860107], "fnd6_itcb": [9.271322250366211, -0.5249847769737244], "fnd6_itci": [10.028249740600586, -0.9083259105682373], "fnd6_ivaco": [6.48300838470459, 3.6335785388946533], "fnd6_ivaeq": [5.083217620849609, 1.6472442150115967], "fnd6_ivao": [4.708889961242676, 1.49952232837677], "fnd6_ivch": [4.4742937088012695, 1.703025221824646], "fnd6_ivst": [7.63930082321167, -0.8793296813964844], "fnd6_ivstch": [7.473361015319824, 2.3575704097747803], "fnd6_lcox": [4.615971088409424, 0.7634044885635376], "fnd6_lcoxdr": [4.7492804527282715, 1.1560235023498535], "fnd6_lifr": [8.280952453613281, -0.9558408856391907], "fnd6_lno": [5.8822174072265625, 0.687783420085907], "fnd6_loc": [6.019738674163818, 2.463690996170044], "fnd6_lol2": [5.414666652679443, -1.1848945617675781], "fnd6_loxdr": [5.768440246582031, -0.6646544337272644], "fnd6_lqpl1": [8.197102546691895, -0.11095932126045227], "fnd6_lul3": [7.5306172370910645, 1.96833074092865], "fnd6_mfma1_aoloch": [6.0738043785095215, 0.11195337027311325], "fnd6_mfma1_apalch": [5.215240955352783, -1.4348794221878052], "fnd6_mfma1_at": [5.228207588195801, 0.5699861645698547], "fnd6_mfma1_capx": [4.994828701019287, 0.4852069020271301], "fnd6_mfma1_csho": [3.218104839324951, 2.709507703781128], "fnd6_mfma1_dp": [6.043145656585693, -0.17582827806472778], "fnd6_mfma1_dpc": [5.8384809494018555, -0.27476534247398376], "fnd6_mfma1_invch": [7.778922080993652, 2.5990118980407715], "fnd6_mfma2_oancf": [9.354437828063965, 0.18063831329345703], "fnd6_mfma2_opeps": [10.848551750183105, -0.9382593631744385], "fnd6_mfma2_recch": [7.6891350746154785, 2.722405433654785], "fnd6_mfma2_revt": [6.437256813049316, 0.5738593339920044], "fnd6_mfma2_txach": [8.912127494812012, -0.20093654096126556], "fnd6_mfmq_cheq": [4.0502777099609375, 1.6554005146026611], "fnd6_mfmq_cogsq": [6.2745585441589355, 0.6887574791908264], "fnd6_mfmq_cshprq": [3.238516330718994, 2.7554664611816406], "fnd6_mfmq_dlcq": [5.093274116516113, -0.33638253808021545], "fnd6_mfmq_ibcomq": [11.654439926147461, 0.1242174282670021], "fnd6_mfmq_mibtq": [5.038024425506592, 1.9311494827270508], "fnd6_mfmq_piq": [11.515419006347656, 0.12324480712413788], "fnd6_mibn": [5.023869514465332, 1.9829150438308716], "fnd6_mibt": [5.0114665031433105, 1.992979884147644], "fnd6_mkvalt": [6.5482940673828125, 4.28342866897583], "fnd6_mkvaltq": [6.618858814239502, 4.742433071136475], "fnd6_mrc1": [3.7952771186828613, -0.9593166708946228], "fnd6_mrc2": [3.7162039279937744, -0.9620417952537537], "fnd6_mrc3": [3.667959690093994, -0.9541386365890503], "fnd6_mrc4": [3.7120816707611084, -0.9593876600265503], "fnd6_mrc5": [3.7483131885528564, -0.8948870301246643], "fnd6_mrct": [3.634831190109253, -1.059356689453125], "fnd6_mrcta": [3.7887721061706543, -0.8972002267837524], "fnd6_msa": [7.247091770172119, 2.2936108112335205], "fnd6_newa1v1300_aco": [4.795632839202881, 0.666483998298645], "fnd6_newa1v1300_acominc": [6.573007106781006, 0.8931704759597778], "fnd6_newa1v1300_aocipen": [6.282305717468262, 0.7037850618362427], "fnd6_newa1v1300_aol2": [4.093143939971924, 1.6006150245666504], "fnd6_newa1v1300_aoloch": [6.140158176422119, 0.18965867161750793], "fnd6_newa1v1300_ap": [6.39528751373291, 0.24788789451122284], "fnd6_newa1v1300_apalch": [5.2258148193359375, -1.4223425388336182], "fnd6_newa1v1300_aqpl1": [7.986039161682129, -1.0521246194839478], "fnd6_newa1v1300_at": [5.273333549499512, 0.44503602385520935], "fnd6_newa1v1300_aul3": [6.184715270996094, 2.7519590854644775], "fnd6_newa1v1300_bkvlps": [8.67620849609375, -0.3706965744495392], "fnd6_newa1v1300_caps": [3.175278425216675, 2.3076236248016357], "fnd6_newa1v1300_capx": [4.9769287109375, 0.46949976682662964], "fnd6_newa1v1300_ceq": [4.874550819396973, 1.1628854274749756], "fnd6_newa1v1300_ceqt": [7.573868274688721, -1.0199202299118042], "fnd6_newa1v1300_che": [4.021881103515625, 1.6304882764816284], "fnd6_newa1v1300_chech": [8.5299654006958, -0.5507451891899109], "fnd6_newa1v1300_cogs": [6.355831146240234, 0.5714677572250366], "fnd6_newa1v1300_cshfd": [3.2704949378967285, 2.70725679397583], "fnd6_newa1v1300_cshi": [3.297858715057373, 2.6786863803863525], "fnd6_newa1v1300_csho": [3.227464437484741, 2.7532169818878174], "fnd6_newa1v1300_cstk": [7.8684587478637695, -0.7684889435768127], "fnd6_newa1v1300_dcom": [8.982444763183594, 0.2079656571149826], "fnd6_newa1v1300_dlc": [5.033301830291748, -0.32737043499946594], "fnd6_newa1v1300_dltt": [5.131643772125244, -0.9386090040206909], "fnd6_newa1v1300_dp": [6.016775131225586, -0.18421314656734467], "fnd6_newa1v1300_dpact": [6.7814202308654785, -0.13201183080673218], "fnd6_newa1v1300_dpc": [5.8706464767456055, -0.2925409972667694], "fnd6_newa1v1300_dv": [9.221176147460938, -0.5011470317840576], "fnd6_newa1v1300_dvc": [9.243182182312012, -0.4733571708202362], "fnd6_newa1v1300_dvt": [9.188804626464844, -0.4482293426990509], "fnd6_newa1v1300_ebit": [9.434274673461914, -0.08029239624738693], "fnd6_newa1v1300_ebitda": [9.19356918334961, -0.04049690067768097], "fnd6_newa1v1300_emp": [6.169980049133301, 0.3938544690608978], "fnd6_newa1v1300_epsfi": [10.799821853637695, -1.0462068319320679], "fnd6_newa1v1300_epsfx": [10.895118713378906, -0.9972515106201172], "fnd6_newa1v1300_epspi": [10.85224723815918, -0.9971629977226257], "fnd6_newa1v1300_epspx": [10.865325927734375, -1.0385382175445557], "fnd6_newa1v1300_fca": [7.754764080047607, 2.1535751819610596], "fnd6_newa1v1300_fincf": [9.08346176147461, 0.11346232891082764], "fnd6_newa1v1300_gdwl": [6.078784465789795, -0.8554598689079285], "fnd6_newa1v1300_gp": [7.029275417327881, 1.0999152660369873], "fnd6_newa1v1300_ib": [10.375019073486328, -0.8803466558456421], "fnd6_newa1v1300_ibadj": [10.336424827575684, -0.9483290910720825], "fnd6_newa1v1300_ibc": [10.353711128234863, -0.9247869849205017], "fnd6_newa1v1300_ibcom": [10.330360412597656, -0.8890776038169861], "fnd6_newa1v1300_icapt": [5.031624794006348, 0.41080352663993835], "fnd6_newa1v1300_intano": [5.972335338592529, -0.8800885677337646], "fnd6_newa1v1300_invch": [7.701722145080566, 2.695847272872925], "fnd6_newa1v1300_invt": [6.672143936157227, -1.5149413347244263], "fnd6_newa1v1300_ivncf": [7.541053771972656, 2.488861560821533], "fnd6_newa1v1300_lco": [4.747442245483398, 0.5818029046058655], "fnd6_newa1v1300_lct": [4.80105447769165, 0.32319289445877075], "fnd6_newa1v1300_lo": [5.641749858856201, -0.5041139721870422], "fnd6_newa1v1300_lse": [5.0652852058410645, 0.35030126571655273], "fnd6_newa1v1300_lt": [5.291955947875977, -0.162178173661232], "fnd6_newa2v1300_mib": [11.677013397216797, 0.16865850985050201], "fnd6_newa2v1300_mii": [9.340900421142578, -0.8717976808547974], "fnd6_newa2v1300_ni": [10.26585578918457, -0.8095336556434631], "fnd6_newa2v1300_nopi": [5.374468803405762, 2.019376516342163], "fnd6_newa2v1300_oancf": [9.30931568145752, 0.24122019112110138], "fnd6_newa2v1300_oiadp": [9.42789363861084, 0.06349779665470123], "fnd6_newa2v1300_oibdp": [9.14985466003418, -0.016356417909264565], "fnd6_newa2v1300_opeps": [10.881023406982422, -0.8561208844184875], "fnd6_newa2v1300_optexd": [8.102499008178711, -0.9291830658912659], "fnd6_newa2v1300_pi": [10.38093376159668, -0.824809730052948], "fnd6_newa2v1300_ppegt": [6.449432373046875, -0.08116630464792252], "fnd6_newa2v1300_ppent": [5.367063045501709, 0.07697416841983795], "fnd6_newa2v1300_prsho": [8.685367584228516, 1.8337095975875854], "fnd6_newa2v1300_rdip": [5.989773750305176, 1.1667782068252563], "fnd6_newa2v1300_rdipa": [5.993256568908691, 1.1741410493850708], "fnd6_newa2v1300_rdipd": [6.003382682800293, 1.248496174812317], "fnd6_newa2v1300_rdipeps": [6.016125202178955, 1.183040738105774], "fnd6_newa2v1300_re": [10.317522048950195, -1.1352514028549194], "fnd6_newa2v1300_recch": [7.7199530601501465, 2.7495639324188232], "fnd6_newa2v1300_rect": [6.618612289428711, 0.31181663274765015], "fnd6_newa2v1300_reuna": [10.345139503479004, -1.1365950107574463], "fnd6_newa2v1300_revt": [6.482537269592285, 0.5181760191917419], "fnd6_newa2v1300_sale": [6.508667945861816, 0.6495344638824463], "fnd6_newa2v1300_seq": [4.897853374481201, 1.0498430728912354], "fnd6_newa2v1300_seqo": [5.961109638214111, 2.4238181114196777], "fnd6_newa2v1300_spced": [7.976154804229736, 2.483473777770996], "fnd6_newa2v1300_spceeps": [7.9063801765441895, 2.3859364986419678], "fnd6_newa2v1300_spi": [5.82658576965332, 0.09858512878417969], "fnd6_newa2v1300_stkco": [3.931317090988159, 1.7389938831329346], "fnd6_newa2v1300_tstk": [8.031729698181152, -1.0646969079971313], "fnd6_newa2v1300_tstkn": [8.002274513244629, -1.1340171098709106], "fnd6_newa2v1300_txach": [8.90609073638916, -0.18070459365844727], "fnd6_newa2v1300_txdb": [6.943174362182617, 0.32132354378700256], "fnd6_newa2v1300_txditc": [6.92615270614624, 0.303121417760849], "fnd6_newa2v1300_txp": [5.332583427429199, 1.6785666942596436], "fnd6_newa2v1300_txt": [10.121509552001953, -0.7164016962051392], "fnd6_newa2v1300_wcap": [3.974144220352173, 1.5929698944091797], "fnd6_newa2v1300_xidoc": [8.812097549438477, 0.6154453158378601], "fnd6_newa2v1300_xint": [5.1366682052612305, -1.011181116104126], "fnd6_newa2v1300_xoptd": [7.881692886352539, 2.512357711791992], "fnd6_newa2v1300_xopteps": [7.8766069412231445, 2.544919967651367], "fnd6_newqv1300_acomincq": [6.72588586807251, 1.0098973512649536], "fnd6_newqv1300_acoq": [4.696256160736084, 0.7861344218254089], "fnd6_newqv1300_altoq": [5.762836456298828, 0.21004199981689453], "fnd6_newqv1300_ancq": [5.791040897369385, 0.08379695564508438], "fnd6_newqv1300_anoq": [5.6216607093811035, 0.793224036693573], "fnd6_newqv1300_aociderglq": [5.641238689422607, 0.5823520421981812], "fnd6_newqv1300_aociotherq": [6.75783634185791, 1.113865852355957], "fnd6_newqv1300_aocipenq": [6.2424750328063965, 0.689504861831665], "fnd6_newqv1300_aocisecglq": [6.180128574371338, 0.7142406702041626], "fnd6_newqv1300_aol2q": [4.083165168762207, 1.566041111946106], "fnd6_newqv1300_aoq": [5.880308628082275, 0.06076086312532425], "fnd6_newqv1300_aqpl1q": [7.998051166534424, -1.0533826351165771], "fnd6_newqv1300_aul3q": [6.2843804359436035, 2.708016872406006], "fnd6_newqv1300_capsq": [3.214886426925659, 2.4144015312194824], "fnd6_newqv1300_chq": [4.042514801025391, 1.598869800567627], "fnd6_newqv1300_cibegniq": [11.680604934692383, 0.15350912511348724], "fnd6_newqv1300_cicurrq": [10.603474617004395, 0.3457169830799103], "fnd6_newqv1300_ciderglq": [6.640966892242432, 4.030123233795166], "fnd6_newqv1300_cimiiq": [4.039800643920898, 2.6361029148101807], "fnd6_newqv1300_ciotherq": [7.895085334777832, 2.4299497604370117], "fnd6_newqv1300_cipenq": [4.096165180206299, 1.7024763822555542], "fnd6_newqv1300_ciq": [11.76601505279541, 0.07577019184827805], "fnd6_newqv1300_cisecglq": [8.098124504089355, 2.2593140602111816], "fnd6_newqv1300_citotalq": [11.747730255126953, 0.17842069268226624], "fnd6_newqv1300_cogsq": [6.331130504608154, 0.7435240149497986], "fnd6_newqv1300_csh12q": [3.224194049835205, 2.766303300857544], "fnd6_newqv1300_cshfdq": [3.169795036315918, 2.855323553085327], "fnd6_newqv1300_cshiq": [3.26284122467041, 2.776895761489868], "fnd6_newqv1300_cshopq": [11.272795677185059, -0.31360211968421936], "fnd6_newqv1300_cshoq": [3.235283851623535, 2.790332555770874], "fnd6_newqv1300_cshprq": [3.236332416534424, 2.756680488586426], "fnd6_newqv1300_cstkq": [7.793458461761475, -0.7579411864280701], "fnd6_newqv1300_dcomq": [8.963032722473145, 0.30438175797462463], "fnd6_newqv1300_dilavq": [11.727263450622559, 0.1251090168952942], "fnd6_newqv1300_dlcq": [5.097054481506348, -0.31210461258888245], "fnd6_newqv1300_dpactq": [6.686216831207275, -0.1261766254901886], "fnd6_newqv1300_drcq": [3.993579149246216, 1.5537532567977905], "fnd6_newqv1300_drltq": [9.70472526550293, -0.22801309823989868], "fnd6_newqv1300_epsfiq": [11.747706413269043, -0.35331857204437256], "fnd6_newqv1300_epspiq": [11.782461166381836, -0.4169095456600189], "fnd6_newqv1300_epspxq": [11.757634162902832, -0.38661864399909973], "fnd6_newqv1300_esopnrq": [11.679713249206543, 0.23747669160366058], "fnd6_newqv1300_esoprq": [6.915116786956787, -0.7369695901870728], "fnd6_newqv1300_fcaq": [7.863378524780273, 2.263314723968506], "fnd6_newqv1300_gdwlq": [6.065398693084717, -0.8510088324546814], "fnd6_newqv1300_glcea12": [8.23401165008545, 2.3787171840667725], "fnd6_newqv1300_glced12": [8.185506820678711, 2.490961790084839], "fnd6_newqv1300_glceeps12": [8.381126403808594, 2.4958181381225586], "fnd6_newqv1300_ibadj12": [6.623104095458984, 4.955648899078369], "fnd6_newqv1300_ibadjq": [11.635353088378906, 0.0938018262386322], "fnd6_newqv1300_ibcomq": [11.668656349182129, 0.1352207362651825], "fnd6_newqv1300_ibmiiq": [11.569232940673828, 0.08116434514522552], "fnd6_newqv1300_ibq": [11.59820556640625, 0.07135528326034546], "fnd6_newqv1300_icaptq": [4.927572250366211, 0.5112369060516357], "fnd6_newqv1300_intanoq": [6.030967712402344, -0.8423187732696533], "fnd6_newqv1300_intanq": [5.953123569488525, -0.8586416244506836], "fnd6_newqv1300_invfgq": [6.692946434020996, -1.5488133430480957], "fnd6_newqv1300_invoq": [9.286077499389648, 1.1529194116592407], "fnd6_newqv1300_invrmq": [6.698486328125, -1.5821012258529663], "fnd6_newqv1300_invtq": [6.645782947540283, -1.5026322603225708], "fnd6_newqv1300_invwipq": [6.6703386306762695, -1.5553606748580933], "fnd6_newqv1300_ivltq": [4.840393543243408, 1.469406008720398], "fnd6_newqv1300_ivstq": [7.6648640632629395, -0.9029445648193359], "fnd6_newqv1300_lcoq": [4.700345039367676, 0.6545381546020508], "fnd6_newqv1300_lltq": [5.288650035858154, -0.5105017423629761], "fnd6_newqv1300_lnoq": [5.814670085906982, 0.7650501132011414], "fnd6_newqv1300_lol2q": [5.421504497528076, -1.0893179178237915], "fnd6_newqv1300_loq": [5.633822441101074, -0.43436989188194275], "fnd6_newqv1300_loxdrq": [5.786617755889893, -0.5500795841217041], "fnd6_newqv1300_lqpl1q": [8.055150985717773, -0.058858759701251984], "fnd6_newqv1300_lseq": [4.9461870193481445, 0.4712500274181366], "fnd6_newqv1300_ltmibq": [5.215458393096924, -0.15802083909511566], "fnd6_newqv1300_lul3q": [7.521374702453613, 1.884298324584961], "fnd6_newqv1300_mibnq": [4.996069431304932, 1.9819867610931396], "fnd6_newqv1300_mibtq": [5.006856918334961, 1.9996155500411987], "fnd6_newqv1300_miiq": [9.45816421508789, -0.8894041180610657], "fnd6_newqv1300_msaq": [7.539825916290283, 2.4492738246917725], "fnd6_newqv1300_oepf12": [11.228259086608887, -0.9210683107376099], "fnd6_newqv1300_xrdq": [4.085201740264893, 1.425706386566162], "fnd6_newqv1300_xsgaq": [4.283708572387695, 1.0781402587890625], "fnd6_niadj": [10.286375999450684, -0.9293223023414612], "fnd6_nopio": [5.756429672241211, 2.2026469707489014], "fnd6_np": [5.9553399085998535, 2.5381290912628174], "fnd6_npq": [5.965076923370361, 2.553025245666504], "fnd6_oprepsx": [10.82768726348877, -0.9692396521568298], "fnd6_optca": [8.401545524597168, -0.5447027683258057], "fnd6_optdr": [8.946532249450684, -0.5757154822349548], "fnd6_optdrq": [9.042202949523926, -0.4168081283569336], "fnd6_optex": [8.237354278564453, -0.739971935749054], "fnd6_optfvgr": [6.369617462158203, 4.333861351013184], "fnd6_optgr": [8.24697494506836, -0.506512463092804], "fnd6_optlife": [8.09418773651123, 1.925319790840149], "fnd6_optlifeq": [8.0078125, 2.0768442153930664], "fnd6_optosby": [8.283888816833496, -0.6992194056510925], "fnd6_optosey": [8.236539840698242, -0.6326783299446106], "fnd6_optprcby": [8.554425239562988, -0.28827357292175293], "fnd6_optprcca": [8.586621284484863, -0.2318146973848343], "fnd6_optprcex": [8.590924263000488, -0.19315692782402039], "fnd6_optprcey": [8.57912826538086, -0.2147630900144577], "fnd6_optprcgr": [6.409827709197998, 4.251465797424316], "fnd6_optprcwa": [8.5986967086792, -0.307357519865036], "fnd6_optrfr": [10.367391586303711, 0.008087883703410625], "fnd6_optvol": [9.107889175415039, 0.8721036911010742], "fnd6_optvolq": [9.078032493591309, 0.7832548022270203], "fnd6_pidom": [10.50106143951416, -0.7981939911842346], "fnd6_pifo": [10.327391624450684, -0.9227772355079651], "fnd6_pncdq": [8.049999237060547, 2.5390772819519043], "fnd6_pncepsq": [8.052254676818848, 2.5902299880981445], "fnd6_pnrsho": [8.679205894470215, 1.8082808256149292], "fnd6_ppeveb": [6.659435272216797, -0.21928218007087708], "fnd6_prcc": [6.196200847625732, 4.747380256652832], "fnd6_prccq": [6.167331695556641, 4.977542877197266], "fnd6_prch": [6.235918045043945, 4.581852912902832], "fnd6_prchq": [6.189811706542969, 5.027287006378174], "fnd6_prcl": [6.197065830230713, 4.684847354888916], "fnd6_prclq": [6.261541843414307, 4.92096471786499], "fnd6_prstkc": [8.50186538696289, -0.05954934284090996], "fnd6_pstkc": [8.722369194030762, 1.802819848060608], "fnd6_pstkl": [8.692158699035645, 1.7732961177825928], "fnd6_pstkrv": [8.732986450195312, 1.7692089080810547], "fnd6_rank": [8.059259414672852, 2.4671671390533447], "fnd6_rea": [5.2601423263549805, 0.8059078454971313], "fnd6_reajo": [6.272034168243408, 0.7391785979270935], "fnd6_recco": [6.082880020141602, 2.6496944427490234], "fnd6_recd": [6.671492576599121, 0.24451540410518646], "fnd6_recta": [6.76934289932251, 0.9461885094642639], "fnd6_rectr": [6.720114707946777, 0.30494412779808044], "fnd6_siv": [4.603370189666748, 1.6420669555664062], "fnd6_spce": [8.01370906829834, 2.1078200340270996], "fnd6_sppe": [6.104622840881348, 4.4402174949646], "fnd6_sppiv": [8.068764686584473, 2.3086588382720947], "fnd6_sstk": [8.076218605041504, -0.7140914797782898], "fnd6_state": [5.0840888023376465, 2.2547037601470947], "fnd6_stkcpa": [3.902662754058838, 1.7312403917312622], "fnd6_teq": [4.921524524688721, 1.1263231039047241], "fnd6_tfva": [4.022356986999512, 1.6244524717330933], "fnd6_tfvce": [7.749977111816406, 1.7403664588928223], "fnd6_tfvl": [5.229444980621338, -1.401948094367981], "fnd6_tlcf": [10.27458381652832, -1.129041075706482], "fnd6_tstkc": [8.056486129760742, -1.0658308267593384], "fnd6_txbco": [7.711302280426025, 2.3609752655029297], "fnd6_txbcof": [8.870170593261719, -0.7145653963088989], "fnd6_txc": [9.619758605957031, -0.2982357144355774], "fnd6_txdba": [6.374022006988525, 0.2781558036804199], "fnd6_txdbca": [6.088222503662109, 4.861751079559326], "fnd6_txdbcl": [5.920141220092773, -0.44074589014053345], "fnd6_txdbclq": [5.616426944732666, -0.4757745563983917], "fnd6_txdc": [7.46086311340332, 1.6987313032150269], "fnd6_txdfed": [7.531589508056641, 1.6439298391342163], "fnd6_txdfo": [7.663203716278076, 1.7956053018569946], "fnd6_txdi": [7.447622299194336, 1.6825205087661743], "fnd6_txds": [7.458785057067871, 1.6844313144683838], "fnd6_txfed": [10.115039825439453, -0.7407349348068237], "fnd6_txfo": [6.882850170135498, 0.53593909740448], "fnd6_txndb": [7.094820022583008, 0.6134366989135742], "fnd6_txndba": [5.680283546447754, -0.6676818132400513], "fnd6_txndbl": [5.439163684844971, -0.7009071111679077], "fnd6_txndbr": [9.55003833770752, -0.1712407022714615], "fnd6_txo": [7.682184219360352, 2.0781209468841553], "fnd6_txpd": [9.626189231872559, -0.062424495816230774], "fnd6_txr": [6.539750099182129, 4.40315580368042], "fnd6_txs": [9.016276359558105, -0.5026177763938904], "fnd6_txtubadjust": [9.809894561767578, -0.48753464221954346], "fnd6_txtubbegin": [6.517810344696045, -0.44835060834884644], "fnd6_txtubend": [6.288027286529541, -0.43121981620788574], "fnd6_txtubposdec": [7.81660270690918, 2.0279436111450195], "fnd6_txtubposinc": [6.289372444152832, -0.3887840211391449], "fnd6_txtubpospdec": [6.819174766540527, -0.4843735694885254], "fnd6_txtubpospinc": [6.182673454284668, -0.5669687390327454], "fnd6_txtubsettle": [7.052051544189453, -0.5295557975769043], "fnd6_txtubsoflimit": [7.176424503326416, -0.5095196962356567], "fnd6_txtubtxtr": [6.981950759887695, -0.49851861596107483], "fnd6_txtubxintbs": [7.052507400512695, -0.4824666976928711], "fnd6_txtubxintis": [7.122891426086426, -0.4797700345516205], "fnd6_txw": [5.610864162445068, 3.057849168777466], "fnd6_weburl": [8.056333541870117, 0.0547734871506691], "fnd6_xacc": [5.340994358062744, 0.378374308347702], "fnd6_xaccq": [5.29489278793335, 0.47098997235298157], "fnd6_xad": [4.201211452484131, 1.123487949371338], "fnd6_xintopt": [7.878622055053711, 2.359612226486206], "fnd6_xopr": [5.38362455368042, 0.4202030301094055], "fnd6_xpp": [10.893693923950195, -0.9510043859481812], "fnd6_xpr": [5.786588668823242, 0.4258873462677002], "fnd6_xrent": [3.8658108711242676, -0.9094800353050232], "fnd6_zipcode": [7.086257457733154, -0.15034273266792297], "forward_price_10": [-8.694724082946777, 9.142539978027344], "forward_price_1080": [-8.742985725402832, 9.190812110900879], "forward_price_120": [-8.706706047058105, 9.154484748840332], "forward_price_150": [-8.702936172485352, 9.150727272033691], "forward_price_180": [-8.739147186279297, 9.18692398071289], "forward_price_20": [-8.693408012390137, 9.14120101928711], "forward_price_270": [-8.697789192199707, 9.145586013793945], "forward_price_30": [-8.678742408752441, 9.126523971557617], "forward_price_360": [-8.730111122131348, 9.177877426147461], "forward_price_60": [-8.670295715332031, 9.1180419921875], "forward_price_720": [-8.730059623718262, 9.177847862243652], "forward_price_90": [-8.693746566772461, 9.141495704650879], "free_cash_flow_per_share": [10.964618682861328, -0.8647438883781433], "free_cash_flow_reported_value": [11.015092849731445, 0.2440498173236847], "free_cash_flow_total": [10.442622184753418, -0.2657557725906372], "fscore_bfl_growth": [5.172738075256348, -1.0135846138000488], "fscore_bfl_quality": [11.144929885864258, -0.5281391143798828], "fscore_bfl_surface_accel": [7.130636692047119, 2.6721010208129883], "fscore_bfl_value": [6.685172080993652, 5.2213521003723145], "funds_from_operations_max_guidance": [10.295575141906738, -3.2111117839813232], "goodwill": [6.079468727111816, -0.8218259811401367], "gross_income_reported_value": [9.743468284606934, 0.7563261389732361], "gross_income_total": [9.686200141906738, 0.7391197085380554], "growth_potential_rank_derivative": [6.989080905914307, 2.7004544734954834], "guidance_reporting_currency": [6.019941329956055, 2.280308961868286], "high": [5.971600532531738, 5.227757453918457], "highest_sales_estimate": [4.5958967208862305, 2.778268575668335], "historical_volatility_10": [10.600992202758789, 3.9462645053863525], "historical_volatility_120": [10.690373420715332, 3.9640445709228516], "historical_volatility_150": [10.681452751159668, 4.002167224884033], "historical_volatility_180": [10.673423767089844, 4.0039896965026855], "historical_volatility_20": [10.622425079345703, 3.9717164039611816], "historical_volatility_30": [10.658263206481934, 3.9986751079559326], "historical_volatility_60": [10.640115737915039, 3.984463691711426], "historical_volatility_90": [10.642120361328125, 3.9705910682678223], "implied_volatility_call_10": [10.503499984741211, 6.356836318969727], "implied_volatility_call_1080": [10.591520309448242, 6.385157585144043], "implied_volatility_call_120": [10.469320297241211, 6.243132591247559], "implied_volatility_call_150": [10.561232566833496, 6.2661452293396], "implied_volatility_call_180": [10.545870780944824, 6.267746448516846], "implied_volatility_call_20": [10.510026931762695, 6.319286823272705], "implied_volatility_call_270": [10.526294708251953, 6.326645374298096], "implied_volatility_call_30": [10.491169929504395, 6.359521865844727], "implied_volatility_call_360": [10.58034610748291, 6.317054748535156], "implied_volatility_call_60": [10.501712799072266, 6.302586555480957], "implied_volatility_call_720": [10.522749900817871, 6.355350971221924], "implied_volatility_call_90": [10.515412330627441, 6.299861431121826], "implied_volatility_mean_10": [10.552790641784668, 6.372761249542236], "implied_volatility_mean_1080": [10.557453155517578, 6.351098537445068], "max_adjusted_net_income_guidance": [10.224038124084473, -2.948242425918579], "max_capital_expenditure_guidance": [6.123035907745361, 2.0191943645477295], "max_ebit_guidance": [10.164538383483887, -2.717970371246338], "max_gross_income_guidance_2": [10.031764030456543, 0.34547683596611023], "max_net_debt_guidance": [10.245240211486816, -3.189493417739868], "max_net_income_guidance": [10.17906379699707, -2.7809557914733887], "median_sales_estimate": [4.626156806945801, 2.7790796756744385], "min_adjusted_net_income_guidance": [10.210249900817871, -2.9141383171081543], "min_net_debt_guidance": [10.231437683105469, -3.17732572555542], "min_net_income_guidance": [10.182046890258789, -2.780341386795044], "min_pretax_profit_guidance_2": [10.268563270568848, -3.241849899291992], "multi_factor_acceleration_score_derivative": [7.0339484214782715, 2.657320022583008], "multi_factor_static_score_derivative": [6.964942932128906, 2.6743147373199463], "net_debt_actual_value": [5.139805316925049, -1.6649352312088013], "net_debt_amount": [5.37790060043335, -1.639012098312378], "net_debt_reported_value": [5.103763103485107, -1.6327056884765625], "net_income_adjusted": [10.322396278381348, -0.043549004942178726], "net_income_total_2": [10.277112007141113, -0.17352865636348724], "net_profit_adjusted_value": [10.63990306854248, 0.18474380671977997], "net_profit_reported_value": [10.689081192016602, 0.2250148355960846], "news_all_vwap": [5.878090858459473, 5.328759670257568], "news_atr14": [6.356578826904297, 6.060784339904785], "news_atr_ratio": [9.322166442871094, 3.439199447631836], "news_cap": [6.541841983795166, 4.140564441680908], "news_close_vol": [10.028429985046387, 3.9438297748565674], "news_curr_vol": [10.987488746643066, 2.550602674484253], "news_dividend_yield": [5.983763217926025, 5.48240327835083], "news_eod_close": [5.951862335205078, 5.449740886688232], "news_eod_high": [5.962058067321777, 5.49269437789917], "news_eod_low": [6.004666805267334, 5.449950218200684], "news_eod_vwap": [5.8721184730529785, 5.387099742889404], "news_eps_actual": [11.76844310760498, -0.372196763753891], "news_high_exc_stddev": [9.20155143737793, 3.0089147090911865], "news_indx_perf": [9.283956527709961, 2.930659770965576], "news_low_exc_stddev": [8.524486541748047, 2.6881182193756104], "news_ls": [9.141724586486816, 2.911162853240967], "news_main_vwap": [5.8553900718688965, 5.315019130706787], "news_max_dn_amt": [6.366754531860352, 6.1030755043029785], "news_max_dn_ret": [10.16024112701416, 3.945894956588745], "news_max_up_amt": [6.349406719207764, 6.069623947143555], "news_max_up_ret": [10.00683879852295, 3.879132032394409], "news_mins_10_chg": [10.685653686523438, 1.056908130645752], "news_mins_10_pct_up": [10.627025604248047, 1.0846409797668457], "news_mins_1_chg": [10.986367225646973, 2.2411293983459473], "news_mins_1_pct_dn": [10.89481258392334, 1.6892532110214233], "news_mins_20_chg": [10.650779724121094, 1.0619571208953857], "news_mins_20_pct_dn": [10.587045669555664, 1.142926812171936], "news_mins_20_pct_up": [10.607970237731934, 1.15206778049469], "news_mins_2_chg": [10.923444747924805, 1.8199645280838013], "news_mins_2_pct_dn": [10.863317489624023, 1.5648621320724487], "news_mins_3_chg": [10.849346160888672, 1.5288203954696655], "news_mins_3_pct_dn": [10.837007522583008, 1.5043429136276245], "news_mins_3_pct_up": [10.805092811584473, 1.4432265758514404], "news_mins_4_chg": [10.841203689575195, 1.4794232845306396], "news_mins_4_pct_dn": [10.772695541381836, 1.3909634351730347], "news_mins_4_pct_up": [10.798401832580566, 1.419134259223938], "news_mins_5_chg": [10.735010147094727, 1.3164821863174438], "news_mins_5_pct_dn": [10.704425811767578, 1.300926923751831], "news_mins_5_pct_up": [10.739861488342285, 1.3140500783920288], "news_mins_7_5_pct_dn": [10.614165306091309, 1.1766366958618164], "news_mov_vol": [10.969707489013672, 2.574141502380371], "news_open": [5.976108551025391, 5.472859859466553], "news_open_gap": [8.165250778198242, 2.5935089588165283], "news_open_vol": [10.99616527557373, 2.531064987182617], "news_pct_10min": [8.965402603149414, 2.7912890911102295], "news_pct_120min": [9.067207336425781, 2.8436810970306396], "news_pct_1min": [8.905000686645508, 2.720911741256714], "news_pct_30min": [9.088604927062988, 2.874135732650757], "news_pct_30sec": [8.768980979919434, 2.6993589401245117], "news_pct_5_min": [8.94299602508545, 2.7515363693237305], "news_pct_60min": [9.093879699707031, 2.862053394317627], "news_pct_90min": [9.05140495300293, 2.8261337280273438], "news_pe_ratio": [5.023475170135498, -1.1959384679794312], "news_post_vwap": [5.822379112243652, 5.331442832946777], "news_pre_vwap": [5.873922824859619, 5.416303634643555], "news_prev_day_ret": [9.33687973022461, 2.9725544452667236], "news_range_stddev": [9.283185005187988, 3.3788552284240723], "news_ratio_vol": [9.835411071777344, 3.732616662979126], "news_session_range": [6.3015828132629395, 5.983516693115234], "news_short_interest": [10.242864608764648, 4.108384132385254], "news_spy_close": [8.104592323303223, 2.5230767726898193], "news_spy_last": [8.181618690490723, 2.5666139125823975], "news_ton_high": [5.981977939605713, 5.485495090484619], "news_ton_last": [5.99821662902832, 5.523558139801025], "news_ton_low": [6.007273197174072, 5.520381450653076], "news_tot_ticks": [10.978428840637207, 2.5561630725860596], "news_vol_stddev": [9.574094772338867, 3.643298625946045], "open": [6.020234107971191, 5.184637069702148], "operating_cashflow_reported_value": [10.753119468688965, 0.28707948327064514], "operating_expense": [5.270431995391846, 0.5687887668609619], "operating_income": [10.185453414916992, 0.22110021114349365], "operating_profit_before_depr_amort_max_guidance_qtr": [10.306558609008789, -0.3366427719593048], "operating_profit_before_depr_amort_min_guidance_qtr": [10.292657852172852, -0.4265369772911072], "operating_profit_max_guidance_qtr": [10.223258018493652, -2.800884962081909], "option_breakeven_10": [6.670692443847656, 6.971644401550293], "option_breakeven_1080": [6.633246898651123, 6.666684150695801], "option_breakeven_120": [6.610396385192871, 6.727808475494385], "option_breakeven_150": [6.637556552886963, 6.789599418640137], "option_breakeven_180": [6.645418167114258, 6.772771835327148], "option_breakeven_20": [6.670949935913086, 6.977023124694824], "option_breakeven_270": [6.614588737487793, 6.660995960235596], "option_breakeven_30": [6.668108940124512, 6.930354118347168], "option_breakeven_360": [6.59846305847168, 6.585750579833984], "option_breakeven_60": [6.626742839813232, 6.842939853668213], "option_breakeven_720": [6.5891618728637695, 6.606243133544922], "option_breakeven_90": [6.636500835418701, 6.789048194885254], "parkinson_volatility_10": [10.716007232666016, 4.568488121032715], "parkinson_volatility_120": [10.730820655822754, 4.540042877197266], "parkinson_volatility_150": [10.776509284973145, 4.602584362030029], "parkinson_volatility_180": [10.73379135131836, 4.561617374420166], "parkinson_volatility_20": [10.706452369689941, 4.589548587799072], "parkinson_volatility_30": [10.703842163085938, 4.564144134521484], "parkinson_volatility_60": [10.742880821228027, 4.53479528427124], "parkinson_volatility_90": [10.728703498840332, 4.563222885131836], "pcr_oi_10": [23.033802032470703, 11.5231351852417], "pcr_oi_1080": [23.102434158325195, 11.589675903320312], "pcr_oi_120": [23.07135581970215, 11.538309097290039], "pcr_oi_150": [23.10399055480957, 11.542373657226562], "pcr_oi_180": [23.12190055847168, 11.610353469848633], "pcr_oi_20": [23.0828800201416, 11.57509994506836], "pcr_oi_270": [23.17059898376465, 11.648222923278809], "pcr_oi_30": [23.050865173339844, 11.570992469787598], "pcr_oi_360": [23.110090255737305, 11.593795776367188], "pcr_oi_720": [23.158777236938477, 11.638605117797852], "pcr_oi_90": [23.029571533203125, 11.509424209594727], "pcr_oi_all": [23.02259635925293, 11.500702857971191], "pcr_vol_10": [23.33271598815918, 12.145472526550293], "pcr_vol_1080": [23.19781494140625, 12.285808563232422], "pcr_vol_120": [23.27414321899414, 12.208186149597168], "pcr_vol_150": [23.263683319091797, 12.194581031799316], "pcr_vol_180": [23.2429256439209, 12.235391616821289], "pcr_vol_20": [23.33335304260254, 12.174819946289062], "pcr_vol_270": [23.22841453552246, 12.256702423095703], "pcr_vol_30": [23.368728637695312, 12.109512329101562], "pcr_vol_360": [23.275840759277344, 12.216176986694336], "pcr_vol_60": [23.31732940673828, 12.151676177978516], "pcr_vol_720": [23.21047592163086, 12.272677421569824], "pcr_vol_90": [23.350400924682617, 12.140405654907227], "pcr_vol_all": [23.318374633789062, 12.014007568359375], "ppent": [5.096731185913086, 0.0835152342915535], "pretax_income": [11.621216773986816, 0.11140000820159912], "pretax_income_standalone_value": [10.74409294128418, 0.15533486008644104], "primary_sector_focused_company_count": [7.160762310028076, 2.0939908027648926], "put_breakeven_10": [6.754419803619385, 7.2936320304870605], "put_breakeven_1080": [6.7780046463012695, 7.322656154632568], "put_breakeven_120": [6.764057636260986, 7.318436622619629], "put_breakeven_150": [6.750204563140869, 7.2937541007995605], "put_breakeven_180": [6.757582664489746, 7.307092189788818], "put_breakeven_20": [6.702452659606934, 7.225054740905762], "put_breakeven_270": [6.76810884475708, 7.325650691986084], "put_breakeven_30": [6.7324323654174805, 7.302852153778076], "put_breakeven_360": [6.762016296386719, 7.309499263763428], "put_breakeven_60": [6.773538112640381, 7.321282386779785], "put_breakeven_720": [6.741455078125, 7.35227108001709], "put_breakeven_90": [6.753145694732666, 7.309831142425537], "pv13_com_page_rank": [4.748715877532959, -0.019836075603961945], "pv13_com_rk_au": [4.345678806304932, -0.3501940667629242], "pv13_custretsig_retsig": [9.296027183532715, 2.9266912937164307], "pv13_ompetitorgraphrank_hub_rank": [8.094444274902344, 2.0866940021514893], "pv13_revere_city": [6.4434614181518555, 2.660468339920044], "pv13_revere_company_total": [6.926219463348389, 1.2873648405075073], "pv13_revere_comproduct_company": [8.156397819519043, 2.2369608879089355], "pv13_revere_country": [6.019738674163818, 2.528118371963501], "pv13_revere_index_cap": [6.359764575958252, 4.03689432144165], "pv13_revere_index_value": [6.200784683227539, 4.459170818328857], "pv13_revere_key_sector_total": [8.039624214172363, -1.16751229763031], "pv13_revere_level": [7.874105453491211, 0.4139814078807831], "pv13_revere_parent": [7.752182960510254, 0.32513314485549927], "pv13_revere_term": [8.131003379821777, 2.156208038330078], "pv13_revere_term_sector_total": [5.990375518798828, -0.7621533870697021], "pv13_revere_zipcode": [7.077728271484375, 0.03058825060725212], "pv13_reveremap": [7.917802333831787, 0.3296017050743103], "pv13_ustomergraphrank_auth_rank": [5.8714823722839355, 0.35129866003990173], "pv13_ustomergraphrank_hub_rank": [8.27662467956543, 2.0622406005859375], "pv13_ustomergraphrank_page_rank": [5.648688316345215, 0.40383604168891907], "rd_expense": [7.907211780548096, 2.179766893386841], "receivable": [6.691606044769287, 0.45101335644721985], "rel_num_all": [4.415955066680908, -0.3881365954875946], "rel_num_comp": [4.457479000091553, -0.36585962772369385], "rel_num_cust": [10.230588912963867, -0.4179767072200775], "rel_num_part": [4.329025745391846, -0.3861258327960968], "rel_ret_all": [8.349297523498535, 2.2532730102539062], "rel_ret_comp": [8.410080909729004, 2.384317636489868], "rel_ret_cust": [8.409660339355469, 2.235874652862549], "rel_ret_part": [8.336862564086914, 2.2959835529327393], "relative_valuation_rank_derivative": [6.945971488952637, 2.683537483215332], "reporting_currency_code_9": [5.903716087341309, 2.490405559539795], "retained_earnings": [10.383930206298828, -1.1620641946792603], "return_assets": [11.842406272888184, -0.41108524799346924], "return_equity": [11.829501152038574, -0.32969337701797485], "returns": [9.397262573242188, 2.882808208465576], "revenue": [6.865890026092529, 0.8715100288391113], "rp_css_assets": [6.4868879318237305, 0.8058558106422424], "rp_css_business": [3.040865182876587, 0.1340269297361374], "rp_css_credit": [6.531806945800781, 0.461122065782547], "rp_css_credit_ratings": [5.194716453552246, -0.7992632389068604], "rp_css_dividends": [5.992608070373535, 0.6220809817314148], "rp_css_earnings": [3.000530958175659, 0.15028154850006104], "rp_css_equity": [3.0401368141174316, 0.1410381942987442], "rp_css_insider": [3.122141122817993, 0.19541475176811218], "rp_css_inverstor": [6.864468574523926, 2.6195311546325684], "rp_css_labor": [5.150530815124512, 0.2992241382598877], "rp_css_legal": [7.943885326385498, 1.9290105104446411], "rp_css_marketing": [7.8505330085754395, 2.7884461879730225], "rp_css_mna": [3.0826621055603027, 0.18559420108795166], "rp_css_partner": [6.739141464233398, 0.8784186840057373], "rp_css_price": [3.0052123069763184, 0.16923478245735168], "rp_css_product": [6.405548572540283, 0.7488610148429871], "rp_css_ptg": [2.9799866676330566, 0.18951381742954254], "rp_css_revenue": [3.1238179206848145, 0.23492611944675446], "rp_css_society": [8.06931209564209, 1.966047763824463], "rp_css_technical": [7.766018390655518, 3.5535037517547607], "rp_ess_assets": [6.746994972229004, 0.21942704916000366], "rp_ess_business": [3.0041775703430176, 0.16844074428081512], "rp_ess_credit": [8.083627700805664, 2.8565070629119873], "rp_ess_credit_ratings": [4.886448860168457, -1.0763728618621826], "rp_ess_dividends": [5.009349822998047, -0.8473985195159912], "rp_ess_earnings": [2.9762094020843506, 0.1625538468360901], "rp_ess_equity": [8.015905380249023, 2.6910252571105957], "rp_ess_insider": [5.867112159729004, 5.390507698059082], "rp_ess_labor": [5.106975078582764, 0.24982541799545288], "rp_ess_legal": [7.998659610748291, 3.1837360858917236], "rp_ess_mna": [7.354723930358887, 1.9219549894332886], "rp_ess_partner": [8.10313892364502, 3.0628421306610107], "rp_ess_price": [3.071561336517334, 0.09913278371095657], "rp_ess_product": [7.94012975692749, 2.585318088531494], "rp_ess_ptg": [2.9924042224884033, 0.17724113166332245], "rp_ess_ratings": [5.865062236785889, 0.3433283567428589], "rp_ess_revenue": [6.293992519378662, 0.06854014098644257], "rp_ess_society": [7.981324195861816, 3.076482057571411], "rp_ess_technical": [6.8246235847473145, 3.6896963119506836], "rp_nip_assets": [8.307602882385254, 3.3923258781433105], "rp_nip_business": [8.256089210510254, 3.550267457962036], "rp_nip_credit": [8.229499816894531, 3.2409818172454834], "rp_nip_credit_ratings": [9.529634475708008, 3.8715200424194336], "rp_nip_dividends": [8.269672393798828, 3.2939701080322266], "rp_nip_earnings": [8.297138214111328, 3.551222562789917], "rp_nip_equity": [8.247342109680176, 3.5232982635498047], "rp_nip_insider": [8.190322875976562, 3.6381402015686035], "rp_nip_inverstor": [8.28844928741455, 3.494783639907837], "rp_nip_labor": [8.197646141052246, 3.2109551429748535], "rp_nip_marketing": [8.35323715209961, 3.3585052490234375], "rp_nip_mna": [8.214415550231934, 3.533677816390991], "rp_nip_partner": [8.254265785217285, 3.477783203125], "rp_nip_price": [8.240612030029297, 3.59132719039917], "rp_nip_product": [8.305950164794922, 3.365017890930176], "rp_nip_ptg": [8.233275413513184, 3.5495667457580566], "rp_nip_ratings": [8.253704071044922, 3.589014768600464], "rp_nip_revenue": [8.368612289428711, 3.4449522495269775], "rp_nip_society": [8.30502986907959, 3.6023831367492676], "rp_nip_technical": [8.074925422668457, 3.6378865242004395], "sales": [6.8354411125183105, 0.9718036651611328], "sales_estimate_average": [4.655198097229004, 2.8235533237457275], "sales_estimate_average_annual": [4.621586322784424, 2.7905941009521484], "sales_estimate_average_quarterly": [4.688986778259277, 2.814706563949585], "sales_estimate_count": [9.719292640686035, 0.5494723916053772], "sales_estimate_count_2": [9.873820304870605, 0.17567935585975647], "sales_estimate_count_quarterly": [9.694557189941406, 0.621847927570343], "sales_estimate_maximum": [4.645787239074707, 2.7870028018951416], "sales_estimate_maximum_quarterly": [4.622969627380371, 2.796797037124634], "sales_estimate_median_value": [4.624449253082275, 2.8131284713745117], "sales_estimate_minimum_quarterly": [4.683154582977295, 2.8144543170928955], "sales_estimate_standard_deviation": [4.3046040534973145, 2.7218594551086426], "sales_estimate_stddev_quarterly": [4.343672275543213, 2.7543087005615234], "sales_growth": [6.347130298614502, 0.3771847188472748], "sales_guidance_value": [9.902098655700684, 0.6254720091819763], "sales_guidance_value_quarterly": [4.666062831878662, 2.8290159702301025], "sales_max_guidance_quarterly": [10.33876895904541, -0.3071039319038391], "sales_min_guidance_quarterly": [10.314539909362793, -0.2239849865436554], "sales_ps": [7.949891567230225, -0.16287145018577576], "selling_general_admin_expense_actual_value": [4.763339042663574, 2.798182487487793], "selling_general_admin_expense_reported_value": [4.791153430938721, 2.883157253265381], "sga_expense": [4.335310935974121, 1.0252052545547485], "shareholders_equity_actual_value": [5.026978015899658, 1.2849886417388916], "shares_outstanding_max_guidance": [4.759542465209961, 0.9122766852378845], "sharesout": [3.1886770725250244, 2.8118975162506104], "split": [4.504009246826172, -0.34209322929382324], "systematic_risk_last_30_days": [10.910612106323242, 4.159726619720459], "systematic_risk_last_360_days": [10.892620086669922, 4.133716106414795], "systematic_risk_last_60_days": [10.866756439208984, 4.152280807495117], "systematic_risk_last_90_days": [10.97465991973877, 4.197761058807373], "tangible_book_value_per_share_max_guidance": [10.283448219299316, -3.260814905166626], "total_assets_amount": [5.080776214599609, 1.5705397129058838], "total_assets_reported_value": [5.104307174682617, 1.2107690572738647], "total_goodwill_amount": [6.233214378356934, -0.8888306021690369], "unsystematic_risk_last_30_days": [10.125075340270996, 4.375954627990723], "unsystematic_risk_last_360_days": [10.14745807647705, 4.349217891693115], "unsystematic_risk_last_60_days": [10.179025650024414, 4.35194730758667], "unsystematic_risk_last_90_days": [10.120100021362305, 4.368520259857178], "volume": [11.057219505310059, 2.473510503768921], "vwap": [5.973337650299072, 5.150215148925781], "working_capital": [4.033525466918945, 1.586071491241455]}